<?xml version="1.0"?>
<opencv_storage>
<stage7>
  <maxWeakCount>15</maxWeakCount>
  <stageThreshold>-9.6138602495193481e-01</stageThreshold>
  <weakClassifiers>
    <_>
      <internalNodes>
        0 -1 107183 -4.2470106855034828e-03</internalNodes>
      <leafValues>
        2.5123152136802673e-01 -3.4487733244895935e-01</leafValues></_>
    <_>
      <internalNodes>
        0 -1 89648 -7.8304037451744080e-03</internalNodes>
      <leafValues>
        2.3947909474372864e-01 -3.7864381074905396e-01</leafValues></_>
    <_>
      <internalNodes>
        0 -1 13172 -5.5142845958471298e-02</internalNodes>
      <leafValues>
        -7.1591144800186157e-01 1.0230581462383270e-01</leafValues></_>
    <_>
      <internalNodes>
        0 -1 106680 3.5476100165396929e-03</internalNodes>
      <leafValues>
        9.9682502448558807e-02 -9.4132071733474731e-01</leafValues></_>
    <_>
      <internalNodes>
        0 -1 154202 2.7404684573411942e-02</internalNodes>
      <leafValues>
        -2.2903756797313690e-01 4.0364137291908264e-01</leafValues></_>
    <_>
      <internalNodes>
        0 -1 5120 -5.0911861471831799e-03</internalNodes>
      <leafValues>
        2.6462170481681824e-01 -2.9004946351051331e-01</leafValues></_>
    <_>
      <internalNodes>
        0 -1 127094 3.0833305791020393e-03</internalNodes>
      <leafValues>
        7.2222910821437836e-02 -8.1289702653884888e-01</leafValues></_>
    <_>
      <internalNodes>
        0 -1 161568 2.9637238476425409e-03</internalNodes>
      <leafValues>
        -2.7124291658401489e-01 2.6697117090225220e-01</leafValues></_>
    <_>
      <internalNodes>
        0 -1 38843 2.8009110689163208e-01</internalNodes>
      <leafValues>
        -1.9162382185459137e-01 3.6686870455741882e-01</leafValues></_>
    <_>
      <internalNodes>
        0 -1 122289 1.3047075271606445e-01</internalNodes>
      <leafValues>
        -1.8845972418785095e-01 5.5625277757644653e-01</leafValues></_>
    <_>
      <internalNodes>
        0 -1 66376 -4.9412727355957031e-02</internalNodes>
      <leafValues>
        -8.5737907886505127e-01 1.4049282670021057e-01</leafValues></_>
    <_>
      <internalNodes>
        0 -1 97321 -5.9335038065910339e-02</internalNodes>
      <leafValues>
        -8.7353640794754028e-01 5.0272539258003235e-02</leafValues></_>
    <_>
      <internalNodes>
        0 -1 11949 -1.2297468259930611e-02</internalNodes>
      <leafValues>
        3.5839706659317017e-01 -2.0341801643371582e-01</leafValues></_>
    <_>
      <internalNodes>
        0 -1 121195 -1.7035973723977804e-03</internalNodes>
      <leafValues>
        2.7314662933349609e-01 -2.5280526280403137e-01</leafValues></_>
    <_>
      <internalNodes>
        0 -1 1459 -1.1298654973506927e-01</internalNodes>
      <leafValues>
        4.8408162593841553e-01 -1.4742502570152283e-01</leafValues></_></weakClassifiers></stage7>
</opencv_storage>
