<?xml version="1.0"?>
<opencv_storage>
<stage3>
  <maxWeakCount>8</maxWeakCount>
  <stageThreshold>-9.0067440271377563e-01</stageThreshold>
  <weakClassifiers>
    <_>
      <internalNodes>
        0 -1 56064 5.3515671752393246e-03</internalNodes>
      <leafValues>
        -7.1893149614334106e-01 2.5546765327453613e-01</leafValues></_>
    <_>
      <internalNodes>
        0 -1 121735 -2.9199395328760147e-02</internalNodes>
      <leafValues>
        5.1677155494689941e-01 -3.3752483129501343e-01</leafValues></_>
    <_>
      <internalNodes>
        0 -1 122912 -7.6545012416318059e-04</internalNodes>
      <leafValues>
        -8.4844917058944702e-01 1.8238854408264160e-01</leafValues></_>
    <_>
      <internalNodes>
        0 -1 269 3.6307998001575470e-02</internalNodes>
      <leafValues>
        -2.5839120149612427e-01 6.4022177457809448e-01</leafValues></_>
    <_>
      <internalNodes>
        0 -1 4277 -5.0878182053565979e-02</internalNodes>
      <leafValues>
        5.1525813341140747e-01 -2.8994935750961304e-01</leafValues></_>
    <_>
      <internalNodes>
        0 -1 127934 8.6994993034750223e-04</internalNodes>
      <leafValues>
        2.0581100881099701e-01 -8.4113824367523193e-01</leafValues></_>
    <_>
      <internalNodes>
        0 -1 127854 -8.6972070857882500e-04</internalNodes>
      <leafValues>
        -7.1295928955078125e-01 1.7671103775501251e-01</leafValues></_>
    <_>
      <internalNodes>
        0 -1 105539 -3.4011425450444221e-03</internalNodes>
      <leafValues>
        3.1575322151184082e-01 -3.8410857319831848e-01</leafValues></_></weakClassifiers></stage3>
</opencv_storage>
