<?xml version="1.0"?>
<opencv_storage>
<stage9>
  <maxWeakCount>20</maxWeakCount>
  <stageThreshold>-9.2177712917327881e-01</stageThreshold>
  <weakClassifiers>
    <_>
      <internalNodes>
        0 -1 105279 1.3719656271860003e-03</internalNodes>
      <leafValues>
        -2.8477612137794495e-01 3.0486890673637390e-01</leafValues></_>
    <_>
      <internalNodes>
        0 -1 31935 9.0850070118904114e-03</internalNodes>
      <leafValues>
        -1.7026738822460175e-01 4.0567332506179810e-01</leafValues></_>
    <_>
      <internalNodes>
        0 -1 94583 5.1319729536771774e-03</internalNodes>
      <leafValues>
        -5.0332432985305786e-01 1.3574434816837311e-01</leafValues></_>
    <_>
      <internalNodes>
        0 -1 97317 -3.5499371588230133e-02</internalNodes>
      <leafValues>
        -8.5786217451095581e-01 1.0558506101369858e-01</leafValues></_>
    <_>
      <internalNodes>
        0 -1 61165 -1.9562894012778997e-03</internalNodes>
      <leafValues>
        2.1795566380023956e-01 -2.9805743694305420e-01</leafValues></_>
    <_>
      <internalNodes>
        0 -1 153629 -1.3032872229814529e-02</internalNodes>
      <leafValues>
        4.2907777428627014e-01 -1.6611723601818085e-01</leafValues></_>
    <_>
      <internalNodes>
        0 -1 127478 2.3231788072735071e-03</internalNodes>
      <leafValues>
        1.0158518701791763e-01 -7.0286148786544800e-01</leafValues></_>
    <_>
      <internalNodes>
        0 -1 113972 -1.1403973214328289e-02</internalNodes>
      <leafValues>
        -8.1292653083801270e-01 6.9441229104995728e-02</leafValues></_>
    <_>
      <internalNodes>
        0 -1 118687 -7.6190405525267124e-03</internalNodes>
      <leafValues>
        5.5495047569274902e-01 -1.4401783049106598e-01</leafValues></_>
    <_>
      <internalNodes>
        0 -1 119468 1.0954899480566382e-03</internalNodes>
      <leafValues>
        -1.7124024033546448e-01 3.8668161630630493e-01</leafValues></_>
    <_>
      <internalNodes>
        0 -1 22147 1.7833806341513991e-03</internalNodes>
      <leafValues>
        -1.2206947058439255e-01 4.7712907195091248e-01</leafValues></_>
    <_>
      <internalNodes>
        0 -1 99055 -5.3838745225220919e-04</internalNodes>
      <leafValues>
        2.0043985545635223e-01 -2.7893579006195068e-01</leafValues></_>
    <_>
      <internalNodes>
        0 -1 153080 4.8816077411174774e-02</internalNodes>
      <leafValues>
        -1.7358501255512238e-01 3.1669834256172180e-01</leafValues></_>
    <_>
      <internalNodes>
        0 -1 95948 -6.6209975630044937e-03</internalNodes>
      <leafValues>
        2.0040744543075562e-01 -4.0516269207000732e-01</leafValues></_>
    <_>
      <internalNodes>
        0 -1 79119 -4.3919373303651810e-02</internalNodes>
      <leafValues>
        -9.3950736522674561e-01 3.3461589366197586e-02</leafValues></_>
    <_>
      <internalNodes>
        0 -1 155045 3.0792874749749899e-03</internalNodes>
      <leafValues>
        -1.8339037895202637e-01 3.6015117168426514e-01</leafValues></_>
    <_>
      <internalNodes>
        0 -1 3337 -5.8654978871345520e-02</internalNodes>
      <leafValues>
        3.3814078569412231e-01 -1.6269038617610931e-01</leafValues></_>
    <_>
      <internalNodes>
        0 -1 48768 -5.0434386357665062e-03</internalNodes>
      <leafValues>
        3.3230504393577576e-01 -1.8243891000747681e-01</leafValues></_>
    <_>
      <internalNodes>
        0 -1 8348 6.9942465052008629e-03</internalNodes>
      <leafValues>
        -2.3019410669803619e-01 2.5098672509193420e-01</leafValues></_>
    <_>
      <internalNodes>
        0 -1 106106 -6.1679277569055557e-03</internalNodes>
      <leafValues>
        -6.5904098749160767e-01 8.4061227738857269e-02</leafValues></_></weakClassifiers></stage9>
</opencv_storage>
