<?xml version="1.0"?>
<opencv_storage>
<stage12>
  <maxWeakCount>25</maxWeakCount>
  <stageThreshold>-1.0081591606140137e+00</stageThreshold>
  <weakClassifiers>
    <_>
      <internalNodes>
        0 -1 81350 2.8147421777248383e-02</internalNodes>
      <leafValues>
        -1.5354838967323303e-01 4.1897809505462646e-01</leafValues></_>
    <_>
      <internalNodes>
        0 -1 102522 1.9944934174418449e-03</internalNodes>
      <leafValues>
        -5.0827032327651978e-01 1.0817543417215347e-01</leafValues></_>
    <_>
      <internalNodes>
        0 -1 98106 3.2504613045603037e-05</internalNodes>
      <leafValues>
        -2.5725626945495605e-01 1.8575645983219147e-01</leafValues></_>
    <_>
      <internalNodes>
        0 -1 117063 1.9638305529952049e-03</internalNodes>
      <leafValues>
        -1.4462371170520782e-01 3.2228359580039978e-01</leafValues></_>
    <_>
      <internalNodes>
        0 -1 33835 -3.6352660972625017e-03</internalNodes>
      <leafValues>
        4.0360113978385925e-01 -1.2488192319869995e-01</leafValues></_>
    <_>
      <internalNodes>
        0 -1 33843 2.7930405922234058e-03</internalNodes>
      <leafValues>
        -1.7941924929618835e-01 3.8415753841400146e-01</leafValues></_>
    <_>
      <internalNodes>
        0 -1 88536 -3.2292213290929794e-05</internalNodes>
      <leafValues>
        2.6026514172554016e-01 -1.9869239628314972e-01</leafValues></_>
    <_>
      <internalNodes>
        0 -1 33152 -1.0610057041049004e-02</internalNodes>
      <leafValues>
        -6.9422549009323120e-01 4.5384760946035385e-02</leafValues></_>
    <_>
      <internalNodes>
        0 -1 19595 -3.1639838125556707e-03</internalNodes>
      <leafValues>
        3.4137627482414246e-01 -1.3259238004684448e-01</leafValues></_>
    <_>
      <internalNodes>
        0 -1 98098 3.1808232888579369e-03</internalNodes>
      <leafValues>
        9.7266361117362976e-02 -7.5053977966308594e-01</leafValues></_>
    <_>
      <internalNodes>
        0 -1 88994 2.3821867071092129e-03</internalNodes>
      <leafValues>
        -1.7878611385822296e-01 3.0254587531089783e-01</leafValues></_>
    <_>
      <internalNodes>
        0 -1 106020 -3.0257793143391609e-02</internalNodes>
      <leafValues>
        -8.4824824333190918e-01 7.5766824185848236e-02</leafValues></_>
    <_>
      <internalNodes>
        0 -1 145894 -1.4287865269579925e-05</internalNodes>
      <leafValues>
        1.7624241113662720e-01 -2.6224943995475769e-01</leafValues></_>
    <_>
      <internalNodes>
        0 -1 145 -1.2513808906078339e-02</internalNodes>
      <leafValues>
        2.3914435505867004e-01 -2.0838955044746399e-01</leafValues></_>
    <_>
      <internalNodes>
        0 -1 442 -3.0735004693269730e-02</internalNodes>
      <leafValues>
        2.1119849383831024e-01 -2.4823898077011108e-01</leafValues></_>
    <_>
      <internalNodes>
        0 -1 159331 7.9226037487387657e-03</internalNodes>
      <leafValues>
        -1.1317674815654755e-01 3.9513742923736572e-01</leafValues></_>
    <_>
      <internalNodes>
        0 -1 158910 1.4158663107082248e-03</internalNodes>
      <leafValues>
        -1.5187945961952209e-01 3.6443310976028442e-01</leafValues></_>
    <_>
      <internalNodes>
        0 -1 106800 3.8060155929997563e-04</internalNodes>
      <leafValues>
        1.2068717181682587e-01 -4.6764686703681946e-01</leafValues></_>
    <_>
      <internalNodes>
        0 -1 53756 -7.9754646867513657e-03</internalNodes>
      <leafValues>
        3.0504807829856873e-01 -1.5723274648189545e-01</leafValues></_>
    <_>
      <internalNodes>
        0 -1 72699 -3.4184150397777557e-02</internalNodes>
      <leafValues>
        2.7908316254615784e-01 -1.9536888599395752e-01</leafValues></_>
    <_>
      <internalNodes>
        0 -1 121152 1.4589140191674232e-03</internalNodes>
      <leafValues>
        7.1300156414508820e-02 -5.7188737392425537e-01</leafValues></_>
    <_>
      <internalNodes>
        0 -1 35849 1.3406767975538969e-03</internalNodes>
      <leafValues>
        -1.3457679748535156e-01 3.7383139133453369e-01</leafValues></_>
    <_>
      <internalNodes>
        0 -1 36255 -8.2705088425427675e-04</internalNodes>
      <leafValues>
        3.1689697504043579e-01 -1.5220507979393005e-01</leafValues></_>
    <_>
      <internalNodes>
        0 -1 127993 -6.0512233176268637e-05</internalNodes>
      <leafValues>
        1.8558365106582642e-01 -2.5373968482017517e-01</leafValues></_>
    <_>
      <internalNodes>
        0 -1 156799 -1.6919029876589775e-03</internalNodes>
      <leafValues>
        3.3900555968284607e-01 -1.5312002599239349e-01</leafValues></_></weakClassifiers></stage12>
</opencv_storage>
