<?xml version="1.0"?>
<opencv_storage>
<stage6>
  <maxWeakCount>12</maxWeakCount>
  <stageThreshold>-1.0378738641738892e+00</stageThreshold>
  <weakClassifiers>
    <_>
      <internalNodes>
        0 -1 26213 4.9386708997189999e-03</internalNodes>
      <leafValues>
        -3.7944409251213074e-01 3.5338345170021057e-01</leafValues></_>
    <_>
      <internalNodes>
        0 -1 79847 -2.5416702032089233e-02</internalNodes>
      <leafValues>
        2.0213067531585693e-01 -5.7008141279220581e-01</leafValues></_>
    <_>
      <internalNodes>
        0 -1 140848 -6.9525428116321564e-03</internalNodes>
      <leafValues>
        3.0907499790191650e-01 -3.2811778783798218e-01</leafValues></_>
    <_>
      <internalNodes>
        0 -1 105255 9.0797164011746645e-04</internalNodes>
      <leafValues>
        -2.6662886142730713e-01 3.6901077628135681e-01</leafValues></_>
    <_>
      <internalNodes>
        0 -1 127619 -7.9402066767215729e-03</internalNodes>
      <leafValues>
        -8.0482345819473267e-01 1.1530334502458572e-01</leafValues></_>
    <_>
      <internalNodes>
        0 -1 154893 5.2613564766943455e-03</internalNodes>
      <leafValues>
        -2.0158371329307556e-01 4.9060416221618652e-01</leafValues></_>
    <_>
      <internalNodes>
        0 -1 37224 -2.6280460879206657e-03</internalNodes>
      <leafValues>
        4.5010975003242493e-01 -2.1313729882240295e-01</leafValues></_>
    <_>
      <internalNodes>
        0 -1 22201 -7.0351664908230305e-03</internalNodes>
      <leafValues>
        4.9601805210113525e-01 -2.0091901719570160e-01</leafValues></_>
    <_>
      <internalNodes>
        0 -1 26978 -2.0750742405653000e-02</internalNodes>
      <leafValues>
        5.0711691379547119e-01 -1.6085177659988403e-01</leafValues></_>
    <_>
      <internalNodes>
        0 -1 150596 1.3209282420575619e-02</internalNodes>
      <leafValues>
        -1.6052001714706421e-01 4.9208602309226990e-01</leafValues></_>
    <_>
      <internalNodes>
        0 -1 71936 -2.5688190013170242e-02</internalNodes>
      <leafValues>
        3.6069229245185852e-01 -2.6457506418228149e-01</leafValues></_>
    <_>
      <internalNodes>
        0 -1 55470 1.6123857349157333e-02</internalNodes>
      <leafValues>
        -5.3505915403366089e-01 1.8483012914657593e-01</leafValues></_></weakClassifiers></stage6>
</opencv_storage>
