<?xml version="1.0"?>
<opencv_storage>
<stage4>
  <maxWeakCount>12</maxWeakCount>
  <stageThreshold>-1.2655432224273682e+00</stageThreshold>
  <weakClassifiers>
    <_>
      <internalNodes>
        0 -1 106650 -5.3676525130867958e-03</internalNodes>
      <leafValues>
        2.7012711763381958e-01 -5.1693403720855713e-01</leafValues></_>
    <_>
      <internalNodes>
        0 -1 148483 -1.3345526531338692e-02</internalNodes>
      <leafValues>
        4.0775746107101440e-01 -3.3942016959190369e-01</leafValues></_>
    <_>
      <internalNodes>
        0 -1 80809 5.8789926697500050e-05</internalNodes>
      <leafValues>
        -5.8163261413574219e-01 2.1871915459632874e-01</leafValues></_>
    <_>
      <internalNodes>
        0 -1 140565 -5.1761295646429062e-02</internalNodes>
      <leafValues>
        4.5257014036178589e-01 -2.4466317892074585e-01</leafValues></_>
    <_>
      <internalNodes>
        0 -1 108588 -9.9009554833173752e-04</internalNodes>
      <leafValues>
        -7.4722349643707275e-01 1.2773318588733673e-01</leafValues></_>
    <_>
      <internalNodes>
        0 -1 499 1.4993085525929928e-02</internalNodes>
      <leafValues>
        -3.3741512894630432e-01 3.2231590151786804e-01</leafValues></_>
    <_>
      <internalNodes>
        0 -1 7550 -3.2658636569976807e-02</internalNodes>
      <leafValues>
        5.7776534557342529e-01 -2.1467703580856323e-01</leafValues></_>
    <_>
      <internalNodes>
        0 -1 2412 -8.0760061740875244e-02</internalNodes>
      <leafValues>
        5.9226888418197632e-01 -2.1532569825649261e-01</leafValues></_>
    <_>
      <internalNodes>
        0 -1 17435 5.3125482052564621e-02</internalNodes>
      <leafValues>
        -2.2589974105358124e-01 5.5771201848983765e-01</leafValues></_>
    <_>
      <internalNodes>
        0 -1 105890 1.1540442937985063e-03</internalNodes>
      <leafValues>
        1.2368612736463547e-01 -7.9434692859649658e-01</leafValues></_>
    <_>
      <internalNodes>
        0 -1 156062 -2.3007098585367203e-02</internalNodes>
      <leafValues>
        5.6145286560058594e-01 -1.8771083652973175e-01</leafValues></_>
    <_>
      <internalNodes>
        0 -1 122181 -5.9736192226409912e-02</internalNodes>
      <leafValues>
        4.3678146600723267e-01 -2.6123034954071045e-01</leafValues></_></weakClassifiers></stage4>
</opencv_storage>
