<?xml version="1.0"?>
<opencv_storage>
<stage17>
  <maxWeakCount>31</maxWeakCount>
  <stageThreshold>-8.1264799833297729e-01</stageThreshold>
  <weakClassifiers>
    <_>
      <internalNodes>
        0 -1 72227 3.9447087794542313e-02</internalNodes>
      <leafValues>
        -1.7221134901046753e-01 2.9192546010017395e-01</leafValues></_>
    <_>
      <internalNodes>
        0 -1 89004 -2.6651401072740555e-02</internalNodes>
      <leafValues>
        1.0613269358873367e-01 -3.7214457988739014e-01</leafValues></_>
    <_>
      <internalNodes>
        0 -1 158092 -2.0765606313943863e-02</internalNodes>
      <leafValues>
        2.3484718799591064e-01 -1.6636073589324951e-01</leafValues></_>
    <_>
      <internalNodes>
        0 -1 61169 -5.0537019968032837e-02</internalNodes>
      <leafValues>
        3.7946364283561707e-01 -7.8713126480579376e-02</leafValues></_>
    <_>
      <internalNodes>
        0 -1 106407 -4.7834672033786774e-02</internalNodes>
      <leafValues>
        -5.8426755666732788e-01 5.7011887431144714e-02</leafValues></_>
    <_>
      <internalNodes>
        0 -1 92304 1.5905509889125824e-01</internalNodes>
      <leafValues>
        5.0927031785249710e-02 -8.3827602863311768e-01</leafValues></_>
    <_>
      <internalNodes>
        0 -1 112920 -9.1477241367101669e-03</internalNodes>
      <leafValues>
        3.0407765507698059e-01 -1.6089732944965363e-01</leafValues></_>
    <_>
      <internalNodes>
        0 -1 118695 7.6017947867512703e-03</internalNodes>
      <leafValues>
        -1.8480941653251648e-01 2.0296245813369751e-01</leafValues></_>
    <_>
      <internalNodes>
        0 -1 133510 3.5195655073039234e-05</internalNodes>
      <leafValues>
        -2.2759695351123810e-01 1.6137459874153137e-01</leafValues></_>
    <_>
      <internalNodes>
        0 -1 133269 -1.7460477465647273e-05</internalNodes>
      <leafValues>
        1.1392861604690552e-01 -3.0601945519447327e-01</leafValues></_>
    <_>
      <internalNodes>
        0 -1 157194 -1.1776795145124197e-03</internalNodes>
      <leafValues>
        3.6170461773872375e-01 -1.2267483770847321e-01</leafValues></_>
    <_>
      <internalNodes>
        0 -1 118309 -1.0010942816734314e-02</internalNodes>
      <leafValues>
        -8.0284130573272705e-01 5.5146966129541397e-02</leafValues></_>
    <_>
      <internalNodes>
        0 -1 141354 4.6447287313640118e-03</internalNodes>
      <leafValues>
        4.7059968113899231e-02 -6.8824487924575806e-01</leafValues></_>
    <_>
      <internalNodes>
        0 -1 157406 -1.2688917340710759e-03</internalNodes>
      <leafValues>
        4.0064543485641479e-01 -8.9344754815101624e-02</leafValues></_>
    <_>
      <internalNodes>
        0 -1 31882 3.7433328106999397e-03</internalNodes>
      <leafValues>
        -6.8450525403022766e-02 4.4278669357299805e-01</leafValues></_>
    <_>
      <internalNodes>
        0 -1 32571 -3.6707364488393068e-03</internalNodes>
      <leafValues>
        2.9587417840957642e-01 -1.6020633280277252e-01</leafValues></_>
    <_>
      <internalNodes>
        0 -1 162273 -2.7407952584326267e-03</internalNodes>
      <leafValues>
        2.9909661412239075e-01 -1.3631497323513031e-01</leafValues></_>
    <_>
      <internalNodes>
        0 -1 58945 -5.5082831531763077e-03</internalNodes>
      <leafValues>
        2.4166986346244812e-01 -1.5313641726970673e-01</leafValues></_>
    <_>
      <internalNodes>
        0 -1 158960 5.4734973236918449e-03</internalNodes>
      <leafValues>
        -1.4540907740592957e-01 2.8902029991149902e-01</leafValues></_>
    <_>
      <internalNodes>
        0 -1 128517 5.1105493912473321e-04</internalNodes>
      <leafValues>
        9.2717669904232025e-02 -3.8714793324470520e-01</leafValues></_>
    <_>
      <internalNodes>
        0 -1 268 -2.3773059248924255e-02</internalNodes>
      <leafValues>
        1.9592250883579254e-01 -1.8723224103450775e-01</leafValues></_>
    <_>
      <internalNodes>
        0 -1 51441 2.2502920182887465e-04</internalNodes>
      <leafValues>
        -2.3852604627609253e-01 1.5074028074741364e-01</leafValues></_>
    <_>
      <internalNodes>
        0 -1 59578 1.9488824531435966e-02</internalNodes>
      <leafValues>
        3.4770499914884567e-02 -9.1141301393508911e-01</leafValues></_>
    <_>
      <internalNodes>
        0 -1 161150 1.1073232162743807e-03</internalNodes>
      <leafValues>
        -1.0654875636100769e-01 3.4726348519325256e-01</leafValues></_>
    <_>
      <internalNodes>
        0 -1 88544 1.4760714257135987e-03</internalNodes>
      <leafValues>
        5.1975179463624954e-02 -6.5586984157562256e-01</leafValues></_>
    <_>
      <internalNodes>
        0 -1 126864 -3.2661002478562295e-05</internalNodes>
      <leafValues>
        1.8797683715820312e-01 -1.7663130164146423e-01</leafValues></_>
    <_>
      <internalNodes>
        0 -1 111873 5.8710230514407158e-03</internalNodes>
      <leafValues>
        -1.0732398927211761e-01 4.1472062468528748e-01</leafValues></_>
    <_>
      <internalNodes>
        0 -1 95355 -3.5678237676620483e-02</internalNodes>
      <leafValues>
        -8.6824989318847656e-01 5.1306273788213730e-02</leafValues></_>
    <_>
      <internalNodes>
        0 -1 141179 -9.9926367402076721e-03</internalNodes>
      <leafValues>
        1.5755537152290344e-01 -2.2479763627052307e-01</leafValues></_>
    <_>
      <internalNodes>
        0 -1 138683 -3.3263142686337233e-03</internalNodes>
      <leafValues>
        2.4707105755805969e-01 -1.5244343876838684e-01</leafValues></_>
    <_>
      <internalNodes>
        0 -1 89823 -1.9709125161170959e-02</internalNodes>
      <leafValues>
        -7.3443502187728882e-01 5.2091732621192932e-02</leafValues></_></weakClassifiers></stage17>
</opencv_storage>
