<?xml version="1.0"?>
<opencv_storage>
<stage5>
  <maxWeakCount>12</maxWeakCount>
  <stageThreshold>-1.2688448429107666e+00</stageThreshold>
  <weakClassifiers>
    <_>
      <internalNodes>
        0 -1 56080 6.0445010662078857e-02</internalNodes>
      <leafValues>
        -5.9352517127990723e-01 3.1085354089736938e-01</leafValues></_>
    <_>
      <internalNodes>
        0 -1 114743 -1.0864840820431709e-02</internalNodes>
      <leafValues>
        4.0783813595771790e-01 -3.4128677845001221e-01</leafValues></_>
    <_>
      <internalNodes>
        0 -1 13381 -4.6720127575099468e-03</internalNodes>
      <leafValues>
        4.1204288601875305e-01 -2.7223753929138184e-01</leafValues></_>
    <_>
      <internalNodes>
        0 -1 156859 1.0855613276362419e-02</internalNodes>
      <leafValues>
        -2.1608290076255798e-01 4.9865806102752686e-01</leafValues></_>
    <_>
      <internalNodes>
        0 -1 114256 -6.3467575237154961e-03</internalNodes>
      <leafValues>
        2.8295335173606873e-01 -3.5289505124092102e-01</leafValues></_>
    <_>
      <internalNodes>
        0 -1 4227 -1.7289817333221436e-02</internalNodes>
      <leafValues>
        5.0803089141845703e-01 -2.3500090837478638e-01</leafValues></_>
    <_>
      <internalNodes>
        0 -1 144507 -6.2502315267920494e-03</internalNodes>
      <leafValues>
        -5.7061535120010376e-01 1.9221264123916626e-01</leafValues></_>
    <_>
      <internalNodes>
        0 -1 22205 -5.6915907189249992e-03</internalNodes>
      <leafValues>
        3.9563810825347900e-01 -2.4545989930629730e-01</leafValues></_>
    <_>
      <internalNodes>
        0 -1 106771 -1.0221852920949459e-02</internalNodes>
      <leafValues>
        3.5056796669960022e-01 -2.7606496214866638e-01</leafValues></_>
    <_>
      <internalNodes>
        0 -1 113638 -9.2315170913934708e-03</internalNodes>
      <leafValues>
        -8.2435935735702515e-01 1.2263077497482300e-01</leafValues></_>
    <_>
      <internalNodes>
        0 -1 23661 3.0569457449018955e-03</internalNodes>
      <leafValues>
        -1.9111484289169312e-01 5.3075832128524780e-01</leafValues></_>
    <_>
      <internalNodes>
        0 -1 339 2.1894298493862152e-02</internalNodes>
      <leafValues>
        -2.5024312734603882e-01 3.6269629001617432e-01</leafValues></_></weakClassifiers></stage5>
</opencv_storage>
